0.8022895591185248,0.518111393925708,0.7236016007232727,0.4618533070262221,0.20579429943221458,0.37584285799940154,0.36340216414780824,0.20040106259985035,0.07544421191120233,0.18935459797480897,0.19937291779003596,0.158969969615879,0.2758974095459459,0.051632175920258525,0.11427375481481668,0.19367655211615778,0.09496487659750995,0.06965298696322958,0.10652419014325375,-0.013260131198378971,0.12721052157174817,0.17598742468154036,0.010172832348933514,0.020338915029104763,0.020350156364871502,-0.02482693106646301,0.022033057291639416,-0.04229414949172585,0.04827774019362674,0.09247668032072673,0.10120427457557246,0.019835322940782288,0.060291577048618004,0.01914889696084246,0.10380923268187096,0.038988251344031256,0.057429725097787404,0.052655647831794015,0.02549371646351842,0.008808037655158522,0.06618813244546118,0.034200626882173055,0.006145276501413485,-0.0012104490797183465,0.004912044749880418,0.07519719868969935,-0.011912064992779133,-0.021680062154824545,-0.018870704731305796,-0.02507127630817841,0.021762892430951062,0.009965960482631283,0.001208492697513399,-0.03733331587523111,0.03159977522042707,0.06905419273319739,0.02056217933166907,0.0450368532725164,-0.010027212550126964,-0.016804750574456257,-0.005185301291330667,-0.022135225506395934,0.015817344906539053,0.0014633238978494477,-0.0040395247808632994,-0.04292420993087818,0.0328805392655999,0.012662530843803112,0.00682585017506794,-0.010707973769824708,-0.01799084073153617,0.030978214614652923,-0.04466290086987669,-0.0269037524585552,0.02679843486089697,-0.003111329429277406,0.012836497687523063,0.00011586743080084543,-0.0036461394971116184,-0.0038191650282208174,-0.00816872365303867,0.010731022580166899,-0.01875675755420557,-0.017296915777003128,-0.001375173944782594,-0.01623395596265457,0.03765788812983912,-0.023289023378779982,-0.0005429784623115872,-0.032612623468010624,0.0514700487653679,-0.022229989866429812,0.006405240099145326,-0.012534897807121689,-0.006083673227309281,-0.05216969840617977,0.01113120173955593,0.0002743609559628774,0.023296541896732546,0.022509680519338437
