0.00906691511901982,0.012035587669145706,0.04234633996828277,0.0007253039449730303,0.015774206623054707,0.03233913037870704,0.0022851228248971637,0.011184657431791147,-0.005201397043011088,0.009856830410373893,0.02994498660875105,0.013474802675433346,0.013574973542277756,-0.003978246499529936,0.023653452877614806,-0.004543604666225121,-0.0043170207755639746,0.008309752338607044,0.06621702517803263,0.01869165516139694,0.0038904462146268247,0.0023155644455929592,0.05514675280907373,0.038178951805225264,0.01915208699321525,0.010984822971399903,-0.011145433836573067,-0.00633434340159063,0.0343481949142376,-0.01535242941062343,-0.008913580884301794,0.008956835581547693,-0.01242159069690999,-7.00661104675728e-05,0.004789568072210443,-0.00528193938359525,0.051671949718256366,0.002892815822174771,-0.0006461256187059704,0.00905249457724421,0.02708352628779775,0.02722808231081662,-0.0056421098703078746,0.007944984851224657,0.020835284534997476,0.03641802052229392,0.03047665155921366,-0.015006189437029216,0.009330570294528155,0.01860245456539689,-0.004271984836274172,0.05321855652059052,-0.0021987283009872304,0.006485275967996487,0.0008171600152906109,0.03281910751884984,0.04675917521874914,-0.011621483464533738,0.020365043867508162,-0.0036842993765051715,0.024905534943551563,-0.010186653157063274,0.017838772824717988,0.009182339553941005,0.023251405190395744,-0.007614772565871832,-0.002903348270387313,-0.0013306252368079417,0.002160872419548758,-0.0051715562332462,-0.0017307745386675114,0.002699870241262828,0.0027686306577439103,0.008988225398831031,0.017705036062817498,0.012420236618002395,0.04145226119153923,0.003553805436439823,-0.007224613378035254,0.05002831067400364,-0.0026643100713246858,-0.014205781246656175,-0.0024186441486464794,-0.001941327038859561,-0.0013897427144010104,-0.0008356999884925131,-0.01342842108000619,-0.0011525461884615011,-0.003938178778735997,-0.005252923105531409,-0.001583704228420679,0.013459862298478766,-0.005015346058658911,-0.003193907688322129,0.0034381425157842807,0.0073709168129623475,0.0009000390583061016,0.012412317920375813,-0.0009991346506129622,0.005129173842397913
