0.4316108818719634,0.33236362609828274,0.24159519333335552,0.2603225156028193,0.20440878946374394,0.17073735723996197,0.16173473656633852,0.12148333583161863,0.10037135376003059,0.10054869362847155,0.1137873881399314,0.10205195030570645,0.11172017530904559,0.06464451143337835,0.05861218455384975,0.06480698634467316,0.06027987833094855,0.07141859119250862,0.057976447241433256,0.06303903147918928,0.058781738736648874,0.04334705962229761,0.058514936901237984,0.02212753439367638,0.03518531432339662,0.04348312344024602,0.042568801352659245,0.03420828664611935,0.02620884437782269,0.023933321490909733,0.04422113314612716,0.038294661744941956,0.049315464063182005,0.05297857963021933,0.026942568002563016,0.027467497058592787,-0.001084786207372859,0.013660013283357609,0.005638165473790039,0.00952647252002676,-0.003940723015261958,0.0053242287629115745,0.028990086363710758,0.022568962827368717,0.00380179560590263,0.011053665392359758,-0.0030439999975695425,0.00034798867182128955,-0.005353667872585372,0.018298692480558893,0.01074892209398321,0.01893427426413306,0.04896611532397955,0.017981198965093176,0.005428726260423176,0.008742190002056054,0.008670365443209135,0.022803416139465082,0.02537680507126055,-0.00172860474994884,0.0014993947151158127,0.00922395933165897,0.045301456448248775,0.0015819876722199882,0.015113013543357097,0.022543614874468244,0.009266923216297901,0.02619073649395099,0.02622025253145545,0.021280373821258938,0.011947628050784111,0.015567328634628057,0.027116466927474794,-0.00803001484443944,0.023778364244135857,-0.002811307797475038,0.006147616319476395,0.004703786669474524,-0.002039124129699011,-0.009323787346180274,-0.0032298355349890686,-0.001085169020334979,0.0387073564914907,0.029195928077277875,-0.025364411588975688,0.0027965250240344717,-0.0011967599175999476,-0.002993680411904096,-0.005557049094000591,-0.004120106933323348,-0.015679247109811067,-0.004762796269558348,0.014612966259152933,-0.00392538940128559,0.004575369642364753,0.007500007802402106,0.0009991764378001523,0.0009546364218601977,0.007504767418312845,-0.00406966376951243
