0.7278981539315367,0.5550556466711737,0.3982690400197716,0.29333204318696304,0.22341282090808792,0.17986862726192454,0.1421824467851267,0.11676104012739472,0.10920484021936995,0.06058804439276607,0.04779294338921967,0.026124181877192877,0.055705648146322354,0.06851174590489081,0.012503001141116625,0.019935359795741462,0.03543548480631295,0.02771013896253251,0.050453966956900895,0.0023519036664512044,0.02204004107574499,0.02419968969907268,0.06725551581272368,0.003629238765924951,0.008621018717190978,0.005672201270404369,-0.0035310637491396866,0.004880376453063359,0.007841466306685052,0.011722522809957127,0.009389318780901856,0.02424267134649721,-0.017832288353169547,0.009789051296991012,0.0363043377133039,0.03893457019882522,0.00455812221446327,0.014899326747330438,0.006754633540810403,0.01222492405636572,0.019322562544443457,0.04862935712116495,-0.019578197399243685,0.014265730232819943,0.00839570585602136,-0.018529984065585908,0.057929628868182634,-0.012734356977651577,-0.006351477288581519,-0.0038164871363991176,0.0072142086112104474,0.010808668547781109,-0.004838134381537086,0.009880872124341314,-0.01734433495011203,0.010723529389763172,-0.012639786918179538,-0.020168090224578987,0.000596997941867588,0.006812701996858615,-0.005351489105238337,0.002895726312686058,-0.003944033795354209,0.01230806162119071,0.010995824012817335,0.0031557979358121705,-0.012990567374077482,-0.015299599536720294,-0.012820779000036558,0.019505164813691286,-0.0035103586790628644,0.010757792638669722,-0.008367513490155644,-0.015870958736102427,-0.004524939962502058,0.020366669753500037,-0.02857570567771573,0.008637073104366786,-0.004057216935961088,-0.0012853793901945927,-0.013167619435511467,-0.002038217613690184,-0.006304190385203249,0.0025198550851160562,0.010426969956709706,-0.007982762102518508,-0.007241989249575702,0.02529070911072822,0.02940528273580118,-0.01133557989585143,-0.00731274247364374,-0.0041463599934452216,0.002616756267782268,-0.005324579545629976,-0.0062473037177713355,-0.0026264438061711806,-0.0062679058354534085,0.008359465993485232,0.019096905472402247,-0.012523553442174849
